digraph Tree {
node [shape=box] ;
0 [label="V2 <= 2.5\ngini = 0.402\nsamples = 10000\nvalue = [7210, 2790]\nclass = good"] ;
1 [label="V6 <= 1079.5\ngini = 0.096\nsamples = 4660\nvalue = [4424, 236]\nclass = good"] ;
0 -> 1 [labeldistance=2.5, labelangle=45, headlabel="True"] ;
2 [label="V3 <= 358.0\ngini = 0.07\nsamples = 4590\nvalue = [4424, 166]\nclass = good"] ;
1 -> 2 ;
3 [label="V4 <= 12002.0\ngini = 0.057\nsamples = 4557\nvalue = [4424, 133]\nclass = good"] ;
2 -> 3 ;
4 [label="V5 <= 742.0\ngini = 0.053\nsamples = 4548\nvalue = [4424, 124]\nclass = good"] ;
3 -> 4 ;
5 [label="gini = 0.0\nsamples = 7\nvalue = [0, 7]\nclass = bad"] ;
4 -> 5 ;
6 [label="V1 <= 1.5\ngini = 0.05\nsamples = 4541\nvalue = [4424, 117]\nclass = good"] ;
4 -> 6 ;
7 [label="gini = 0.0\nsamples = 2656\nvalue = [2656, 0]\nclass = good"] ;
6 -> 7 ;
8 [label="V1 <= 2.5\ngini = 0.116\nsamples = 1885\nvalue = [1768, 117]\nclass = good"] ;
6 -> 8 ;
9 [label="V7 <= 10186.5\ngini = 0.344\nsamples = 281\nvalue = [219, 62]\nclass = good"] ;
8 -> 9 ;
10 [label="V6 <= 981.0\ngini = 0.254\nsamples = 241\nvalue = [205, 36]\nclass = good"] ;
9 -> 10 ;
11 [label="V10 <= 70.0\ngini = 0.497\nsamples = 24\nvalue = [13, 11]\nclass = good"] ;
10 -> 11 ;
12 [label="gini = 0.0\nsamples = 5\nvalue = [0, 5]\nclass = bad"] ;
11 -> 12 ;
13 [label="gini = 0.432\nsamples = 19\nvalue = [13, 6]\nclass = good"] ;
11 -> 13 ;
14 [label="V10 <= 244967.0\ngini = 0.204\nsamples = 217\nvalue = [192, 25]\nclass = good"] ;
10 -> 14 ;
15 [label="gini = 0.191\nsamples = 215\nvalue = [192, 23]\nclass = good"] ;
14 -> 15 ;
16 [label="gini = 0.0\nsamples = 2\nvalue = [0, 2]\nclass = bad"] ;
14 -> 16 ;
17 [label="V6 <= 993.0\ngini = 0.455\nsamples = 40\nvalue = [14, 26]\nclass = bad"] ;
9 -> 17 ;
18 [label="V9 <= 58159.0\ngini = 0.355\nsamples = 13\nvalue = [10, 3]\nclass = good"] ;
17 -> 18 ;
19 [label="gini = 0.5\nsamples = 6\nvalue = [3, 3]\nclass = good"] ;
18 -> 19 ;
20 [label="gini = 0.0\nsamples = 7\nvalue = [7, 0]\nclass = good"] ;
18 -> 20 ;
21 [label="V5 <= 870.0\ngini = 0.252\nsamples = 27\nvalue = [4, 23]\nclass = bad"] ;
17 -> 21 ;
22 [label="gini = 0.0\nsamples = 2\nvalue = [2, 0]\nclass = good"] ;
21 -> 22 ;
23 [label="gini = 0.147\nsamples = 25\nvalue = [2, 23]\nclass = bad"] ;
21 -> 23 ;
24 [label="V3 <= 103.5\ngini = 0.066\nsamples = 1604\nvalue = [1549, 55]\nclass = good"] ;
8 -> 24 ;
25 [label="V7 <= 17048.5\ngini = 0.026\nsamples = 926\nvalue = [914, 12]\nclass = good"] ;
24 -> 25 ;
26 [label="V10 <= 2.5\ngini = 0.018\nsamples = 880\nvalue = [872, 8]\nclass = good"] ;
25 -> 26 ;
27 [label="gini = 0.219\nsamples = 8\nvalue = [7, 1]\nclass = good"] ;
26 -> 27 ;
28 [label="gini = 0.016\nsamples = 872\nvalue = [865, 7]\nclass = good"] ;
26 -> 28 ;
29 [label="V7 <= 17249.5\ngini = 0.159\nsamples = 46\nvalue = [42, 4]\nclass = good"] ;
25 -> 29 ;
30 [label="gini = 0.0\nsamples = 3\nvalue = [0, 3]\nclass = bad"] ;
29 -> 30 ;
31 [label="gini = 0.045\nsamples = 43\nvalue = [42, 1]\nclass = good"] ;
29 -> 31 ;
32 [label="V3 <= 104.5\ngini = 0.119\nsamples = 678\nvalue = [635, 43]\nclass = good"] ;
24 -> 32 ;
33 [label="gini = 0.0\nsamples = 2\nvalue = [0, 2]\nclass = bad"] ;
32 -> 33 ;
34 [label="V7 <= 13699.5\ngini = 0.114\nsamples = 676\nvalue = [635, 41]\nclass = good"] ;
32 -> 34 ;
35 [label="gini = 0.091\nsamples = 604\nvalue = [575, 29]\nclass = good"] ;
34 -> 35 ;
36 [label="gini = 0.278\nsamples = 72\nvalue = [60, 12]\nclass = good"] ;
34 -> 36 ;
37 [label="gini = 0.0\nsamples = 9\nvalue = [0, 9]\nclass = bad"] ;
3 -> 37 ;
38 [label="gini = 0.0\nsamples = 33\nvalue = [0, 33]\nclass = bad"] ;
2 -> 38 ;
39 [label="gini = 0.0\nsamples = 70\nvalue = [0, 70]\nclass = bad"] ;
1 -> 39 ;
40 [label="V1 <= 2.5\ngini = 0.499\nsamples = 5340\nvalue = [2786, 2554]\nclass = good"] ;
0 -> 40 [labeldistance=2.5, labelangle=-45, headlabel="False"] ;
41 [label="V1 <= 1.5\ngini = 0.367\nsamples = 3104\nvalue = [752, 2352]\nclass = bad"] ;
40 -> 41 ;
42 [label="gini = 0.0\nsamples = 312\nvalue = [312, 0]\nclass = good"] ;
41 -> 42 ;
43 [label="V9 <= 269869.0\ngini = 0.266\nsamples = 2792\nvalue = [440, 2352]\nclass = bad"] ;
41 -> 43 ;
44 [label="V7 <= 9992.5\ngini = 0.425\nsamples = 971\nvalue = [297, 674]\nclass = bad"] ;
43 -> 44 ;
45 [label="V6 <= 1080.0\ngini = 0.489\nsamples = 643\nvalue = [274, 369]\nclass = bad"] ;
44 -> 45 ;
46 [label="V3 <= 353.5\ngini = 0.5\nsamples = 553\nvalue = [274, 279]\nclass = bad"] ;
45 -> 46 ;
47 [label="V4 <= 11995.5\ngini = 0.496\nsamples = 504\nvalue = [274, 230]\nclass = good"] ;
46 -> 47 ;
48 [label="V10 <= 2452.0\ngini = 0.492\nsamples = 486\nvalue = [274, 212]\nclass = good"] ;
47 -> 48 ;
49 [label="V8 <= 101.5\ngini = 0.385\nsamples = 50\nvalue = [13, 37]\nclass = bad"] ;
48 -> 49 ;
50 [label="gini = 0.5\nsamples = 22\nvalue = [11, 11]\nclass = good"] ;
49 -> 50 ;
51 [label="gini = 0.133\nsamples = 28\nvalue = [2, 26]\nclass = bad"] ;
49 -> 51 ;
52 [label="V2 <= 3.5\ngini = 0.481\nsamples = 436\nvalue = [261, 175]\nclass = good"] ;
48 -> 52 ;
53 [label="gini = 0.5\nsamples = 240\nvalue = [122, 118]\nclass = good"] ;
52 -> 53 ;
54 [label="gini = 0.412\nsamples = 196\nvalue = [139, 57]\nclass = good"] ;
52 -> 54 ;
55 [label="gini = 0.0\nsamples = 18\nvalue = [0, 18]\nclass = bad"] ;
47 -> 55 ;
56 [label="gini = 0.0\nsamples = 49\nvalue = [0, 49]\nclass = bad"] ;
46 -> 56 ;
57 [label="gini = 0.0\nsamples = 90\nvalue = [0, 90]\nclass = bad"] ;
45 -> 57 ;
58 [label="V6 <= 998.5\ngini = 0.13\nsamples = 328\nvalue = [23, 305]\nclass = bad"] ;
44 -> 58 ;
59 [label="V3 <= 354.5\ngini = 0.434\nsamples = 66\nvalue = [21, 45]\nclass = bad"] ;
58 -> 59 ;
60 [label="V5 <= 1113.0\ngini = 0.498\nsamples = 45\nvalue = [21, 24]\nclass = bad"] ;
59 -> 60 ;
61 [label="V6 <= 922.5\ngini = 0.408\nsamples = 28\nvalue = [8, 20]\nclass = bad"] ;
60 -> 61 ;
62 [label="V10 <= 214197.5\ngini = 0.245\nsamples = 21\nvalue = [3, 18]\nclass = bad"] ;
61 -> 62 ;
63 [label="gini = 0.1\nsamples = 19\nvalue = [1, 18]\nclass = bad"] ;
62 -> 63 ;
64 [label="gini = 0.0\nsamples = 2\nvalue = [2, 0]\nclass = good"] ;
62 -> 64 ;
65 [label="V8 <= 300.0\ngini = 0.408\nsamples = 7\nvalue = [5, 2]\nclass = good"] ;
61 -> 65 ;
66 [label="gini = 0.0\nsamples = 5\nvalue = [5, 0]\nclass = good"] ;
65 -> 66 ;
67 [label="gini = 0.0\nsamples = 2\nvalue = [0, 2]\nclass = bad"] ;
65 -> 67 ;
68 [label="V6 <= 910.5\ngini = 0.36\nsamples = 17\nvalue = [13, 4]\nclass = good"] ;
60 -> 68 ;
69 [label="gini = 0.0\nsamples = 12\nvalue = [12, 0]\nclass = good"] ;
68 -> 69 ;
70 [label="V11 <= 8969.5\ngini = 0.32\nsamples = 5\nvalue = [1, 4]\nclass = bad"] ;
68 -> 70 ;
71 [label="gini = 0.0\nsamples = 1\nvalue = [1, 0]\nclass = good"] ;
70 -> 71 ;
72 [label="gini = 0.0\nsamples = 4\nvalue = [0, 4]\nclass = bad"] ;
70 -> 72 ;
73 [label="gini = 0.0\nsamples = 21\nvalue = [0, 21]\nclass = bad"] ;
59 -> 73 ;
74 [label="V5 <= 1422.0\ngini = 0.015\nsamples = 262\nvalue = [2, 260]\nclass = bad"] ;
58 -> 74 ;
75 [label="V8 <= 357.5\ngini = 0.008\nsamples = 261\nvalue = [1, 260]\nclass = bad"] ;
74 -> 75 ;
76 [label="gini = 0.0\nsamples = 237\nvalue = [0, 237]\nclass = bad"] ;
75 -> 76 ;
77 [label="V11 <= 9076.5\ngini = 0.08\nsamples = 24\nvalue = [1, 23]\nclass = bad"] ;
75 -> 77 ;
78 [label="gini = 0.0\nsamples = 1\nvalue = [1, 0]\nclass = good"] ;
77 -> 78 ;
79 [label="gini = 0.0\nsamples = 23\nvalue = [0, 23]\nclass = bad"] ;
77 -> 79 ;
80 [label="gini = 0.0\nsamples = 1\nvalue = [1, 0]\nclass = good"] ;
74 -> 80 ;
81 [label="V8 <= 264.5\ngini = 0.145\nsamples = 1821\nvalue = [143, 1678]\nclass = bad"] ;
43 -> 81 ;
82 [label="V3 <= 98.5\ngini = 0.409\nsamples = 310\nvalue = [89, 221]\nclass = bad"] ;
81 -> 82 ;
83 [label="V7 <= 10457.5\ngini = 0.5\nsamples = 125\nvalue = [63, 62]\nclass = good"] ;
82 -> 83 ;
84 [label="V6 <= 1082.0\ngini = 0.465\nsamples = 95\nvalue = [60, 35]\nclass = good"] ;
83 -> 84 ;
85 [label="V4 <= 10721.0\ngini = 0.422\nsamples = 86\nvalue = [60, 26]\nclass = good"] ;
84 -> 85 ;
86 [label="V9 <= 66363820.0\ngini = 0.202\nsamples = 35\nvalue = [31, 4]\nclass = good"] ;
85 -> 86 ;
87 [label="gini = 0.0\nsamples = 25\nvalue = [25, 0]\nclass = good"] ;
86 -> 87 ;
88 [label="gini = 0.48\nsamples = 10\nvalue = [6, 4]\nclass = good"] ;
86 -> 88 ;
89 [label="V4 <= 10843.5\ngini = 0.491\nsamples = 51\nvalue = [29, 22]\nclass = good"] ;
85 -> 89 ;
90 [label="gini = 0.245\nsamples = 7\nvalue = [1, 6]\nclass = bad"] ;
89 -> 90 ;
91 [label="gini = 0.463\nsamples = 44\nvalue = [28, 16]\nclass = good"] ;
89 -> 91 ;
92 [label="gini = 0.0\nsamples = 9\nvalue = [0, 9]\nclass = bad"] ;
84 -> 92 ;
93 [label="V7 <= 19333.0\ngini = 0.18\nsamples = 30\nvalue = [3, 27]\nclass = bad"] ;
83 -> 93 ;
94 [label="V10 <= 27.5\ngini = 0.069\nsamples = 28\nvalue = [1, 27]\nclass = bad"] ;
93 -> 94 ;
95 [label="V11 <= 9327.5\ngini = 0.5\nsamples = 2\nvalue = [1, 1]\nclass = good"] ;
94 -> 95 ;
96 [label="gini = 0.0\nsamples = 1\nvalue = [0, 1]\nclass = bad"] ;
95 -> 96 ;
97 [label="gini = 0.0\nsamples = 1\nvalue = [1, 0]\nclass = good"] ;
95 -> 97 ;
98 [label="gini = 0.0\nsamples = 26\nvalue = [0, 26]\nclass = bad"] ;
94 -> 98 ;
99 [label="gini = 0.0\nsamples = 2\nvalue = [2, 0]\nclass = good"] ;
93 -> 99 ;
100 [label="V4 <= 10105.0\ngini = 0.242\nsamples = 185\nvalue = [26, 159]\nclass = bad"] ;
82 -> 100 ;
101 [label="V9 <= 69926714.0\ngini = 0.408\nsamples = 7\nvalue = [5, 2]\nclass = good"] ;
100 -> 101 ;
102 [label="gini = 0.0\nsamples = 4\nvalue = [4, 0]\nclass = good"] ;
101 -> 102 ;
103 [label="V9 <= 92207500.0\ngini = 0.444\nsamples = 3\nvalue = [1, 2]\nclass = bad"] ;
101 -> 103 ;
104 [label="gini = 0.0\nsamples = 2\nvalue = [0, 2]\nclass = bad"] ;
103 -> 104 ;
105 [label="gini = 0.0\nsamples = 1\nvalue = [1, 0]\nclass = good"] ;
103 -> 105 ;
106 [label="V5 <= 1378.5\ngini = 0.208\nsamples = 178\nvalue = [21, 157]\nclass = bad"] ;
100 -> 106 ;
107 [label="V7 <= 20344.0\ngini = 0.163\nsamples = 168\nvalue = [15, 153]\nclass = bad"] ;
106 -> 107 ;
108 [label="V11 <= 8925.5\ngini = 0.154\nsamples = 167\nvalue = [14, 153]\nclass = bad"] ;
107 -> 108 ;
109 [label="gini = 0.0\nsamples = 1\nvalue = [1, 0]\nclass = good"] ;
108 -> 109 ;
110 [label="gini = 0.144\nsamples = 166\nvalue = [13, 153]\nclass = bad"] ;
108 -> 110 ;
111 [label="gini = 0.0\nsamples = 1\nvalue = [1, 0]\nclass = good"] ;
107 -> 111 ;
112 [label="V4 <= 11022.0\ngini = 0.48\nsamples = 10\nvalue = [6, 4]\nclass = good"] ;
106 -> 112 ;
113 [label="gini = 0.0\nsamples = 5\nvalue = [5, 0]\nclass = good"] ;
112 -> 113 ;
114 [label="V10 <= 79.5\ngini = 0.32\nsamples = 5\nvalue = [1, 4]\nclass = bad"] ;
112 -> 114 ;
115 [label="gini = 0.0\nsamples = 1\nvalue = [1, 0]\nclass = good"] ;
114 -> 115 ;
116 [label="gini = 0.0\nsamples = 4\nvalue = [0, 4]\nclass = bad"] ;
114 -> 116 ;
117 [label="V5 <= 1426.0\ngini = 0.069\nsamples = 1511\nvalue = [54, 1457]\nclass = bad"] ;
81 -> 117 ;
118 [label="V3 <= 82.5\ngini = 0.064\nsamples = 1507\nvalue = [50, 1457]\nclass = bad"] ;
117 -> 118 ;
119 [label="V7 <= 6053.0\ngini = 0.166\nsamples = 427\nvalue = [39, 388]\nclass = bad"] ;
118 -> 119 ;
120 [label="V10 <= 3038.5\ngini = 0.315\nsamples = 148\nvalue = [29, 119]\nclass = bad"] ;
119 -> 120 ;
121 [label="V4 <= 10064.0\ngini = 0.136\nsamples = 82\nvalue = [6, 76]\nclass = bad"] ;
120 -> 121 ;
122 [label="gini = 0.0\nsamples = 2\nvalue = [2, 0]\nclass = good"] ;
121 -> 122 ;
123 [label="gini = 0.095\nsamples = 80\nvalue = [4, 76]\nclass = bad"] ;
121 -> 123 ;
124 [label="V10 <= 7042.5\ngini = 0.454\nsamples = 66\nvalue = [23, 43]\nclass = bad"] ;
120 -> 124 ;
125 [label="gini = 0.198\nsamples = 9\nvalue = [8, 1]\nclass = good"] ;
124 -> 125 ;
126 [label="gini = 0.388\nsamples = 57\nvalue = [15, 42]\nclass = bad"] ;
124 -> 126 ;
127 [label="V7 <= 24284.5\ngini = 0.069\nsamples = 279\nvalue = [10, 269]\nclass = bad"] ;
119 -> 127 ;
128 [label="V7 <= 9589.0\ngini = 0.063\nsamples = 278\nvalue = [9, 269]\nclass = bad"] ;
127 -> 128 ;
129 [label="gini = 0.165\nsamples = 88\nvalue = [8, 80]\nclass = bad"] ;
128 -> 129 ;
130 [label="gini = 0.01\nsamples = 190\nvalue = [1, 189]\nclass = bad"] ;
128 -> 130 ;
131 [label="gini = 0.0\nsamples = 1\nvalue = [1, 0]\nclass = good"] ;
127 -> 131 ;
132 [label="V11 <= 8926.0\ngini = 0.02\nsamples = 1080\nvalue = [11, 1069]\nclass = bad"] ;
118 -> 132 ;
133 [label="V3 <= 133.5\ngini = 0.444\nsamples = 6\nvalue = [2, 4]\nclass = bad"] ;
132 -> 133 ;
134 [label="gini = 0.0\nsamples = 4\nvalue = [0, 4]\nclass = bad"] ;
133 -> 134 ;
135 [label="gini = 0.0\nsamples = 2\nvalue = [2, 0]\nclass = good"] ;
133 -> 135 ;
136 [label="V4 <= 10070.0\ngini = 0.017\nsamples = 1074\nvalue = [9, 1065]\nclass = bad"] ;
132 -> 136 ;
137 [label="V10 <= 2174.5\ngini = 0.269\nsamples = 25\nvalue = [4, 21]\nclass = bad"] ;
136 -> 137 ;
138 [label="gini = 0.0\nsamples = 19\nvalue = [0, 19]\nclass = bad"] ;
137 -> 138 ;
139 [label="gini = 0.444\nsamples = 6\nvalue = [4, 2]\nclass = good"] ;
137 -> 139 ;
140 [label="V11 <= 8996.0\ngini = 0.009\nsamples = 1049\nvalue = [5, 1044]\nclass = bad"] ;
136 -> 140 ;
141 [label="gini = 0.198\nsamples = 18\nvalue = [2, 16]\nclass = bad"] ;
140 -> 141 ;
142 [label="gini = 0.006\nsamples = 1031\nvalue = [3, 1028]\nclass = bad"] ;
140 -> 142 ;
143 [label="gini = 0.0\nsamples = 4\nvalue = [4, 0]\nclass = good"] ;
117 -> 143 ;
144 [label="V6 <= 1079.5\ngini = 0.164\nsamples = 2236\nvalue = [2034, 202]\nclass = good"] ;
40 -> 144 ;
145 [label="V3 <= 355.0\ngini = 0.123\nsamples = 2177\nvalue = [2034, 143]\nclass = good"] ;
144 -> 145 ;
146 [label="V2 <= 3.5\ngini = 0.097\nsamples = 2144\nvalue = [2034, 110]\nclass = good"] ;
145 -> 146 ;
147 [label="V7 <= 10125.0\ngini = 0.311\nsamples = 286\nvalue = [231, 55]\nclass = good"] ;
146 -> 147 ;
148 [label="V4 <= 11991.0\ngini = 0.214\nsamples = 246\nvalue = [216, 30]\nclass = good"] ;
147 -> 148 ;
149 [label="V3 <= 305.5\ngini = 0.192\nsamples = 242\nvalue = [216, 26]\nclass = good"] ;
148 -> 149 ;
150 [label="V10 <= 86.5\ngini = 0.125\nsamples = 209\nvalue = [195, 14]\nclass = good"] ;
149 -> 150 ;
151 [label="V3 <= 255.5\ngini = 0.326\nsamples = 39\nvalue = [31, 8]\nclass = good"] ;
150 -> 151 ;
152 [label="gini = 0.208\nsamples = 34\nvalue = [30, 4]\nclass = good"] ;
151 -> 152 ;
153 [label="gini = 0.32\nsamples = 5\nvalue = [1, 4]\nclass = bad"] ;
151 -> 153 ;
154 [label="V5 <= 741.0\ngini = 0.068\nsamples = 170\nvalue = [164, 6]\nclass = good"] ;
150 -> 154 ;
155 [label="gini = 0.0\nsamples = 1\nvalue = [0, 1]\nclass = bad"] ;
154 -> 155 ;
156 [label="gini = 0.057\nsamples = 169\nvalue = [164, 5]\nclass = good"] ;
154 -> 156 ;
157 [label="V5 <= 828.5\ngini = 0.463\nsamples = 33\nvalue = [21, 12]\nclass = good"] ;
149 -> 157 ;
158 [label="gini = 0.0\nsamples = 3\nvalue = [0, 3]\nclass = bad"] ;
157 -> 158 ;
159 [label="V8 <= 334.5\ngini = 0.42\nsamples = 30\nvalue = [21, 9]\nclass = good"] ;
157 -> 159 ;
160 [label="gini = 0.287\nsamples = 23\nvalue = [19, 4]\nclass = good"] ;
159 -> 160 ;
161 [label="gini = 0.408\nsamples = 7\nvalue = [2, 5]\nclass = bad"] ;
159 -> 161 ;
162 [label="gini = 0.0\nsamples = 4\nvalue = [0, 4]\nclass = bad"] ;
148 -> 162 ;
163 [label="V6 <= 1004.0\ngini = 0.469\nsamples = 40\nvalue = [15, 25]\nclass = bad"] ;
147 -> 163 ;
164 [label="V10 <= 3801.0\ngini = 0.375\nsamples = 16\nvalue = [12, 4]\nclass = good"] ;
163 -> 164 ;
165 [label="gini = 0.0\nsamples = 3\nvalue = [0, 3]\nclass = bad"] ;
164 -> 165 ;
166 [label="V9 <= 191016.5\ngini = 0.142\nsamples = 13\nvalue = [12, 1]\nclass = good"] ;
164 -> 166 ;
167 [label="gini = 0.0\nsamples = 11\nvalue = [11, 0]\nclass = good"] ;
166 -> 167 ;
168 [label="V11 <= 9869.5\ngini = 0.5\nsamples = 2\nvalue = [1, 1]\nclass = good"] ;
166 -> 168 ;
169 [label="gini = 0.0\nsamples = 1\nvalue = [1, 0]\nclass = good"] ;
168 -> 169 ;
170 [label="gini = 0.0\nsamples = 1\nvalue = [0, 1]\nclass = bad"] ;
168 -> 170 ;
171 [label="V7 <= 20805.5\ngini = 0.219\nsamples = 24\nvalue = [3, 21]\nclass = bad"] ;
163 -> 171 ;
172 [label="V7 <= 11165.5\ngini = 0.159\nsamples = 23\nvalue = [2, 21]\nclass = bad"] ;
171 -> 172 ;
173 [label="V9 <= 44095132.0\ngini = 0.5\nsamples = 2\nvalue = [1, 1]\nclass = good"] ;
172 -> 173 ;
174 [label="gini = 0.0\nsamples = 1\nvalue = [1, 0]\nclass = good"] ;
173 -> 174 ;
175 [label="gini = 0.0\nsamples = 1\nvalue = [0, 1]\nclass = bad"] ;
173 -> 175 ;
176 [label="V8 <= 328.0\ngini = 0.091\nsamples = 21\nvalue = [1, 20]\nclass = bad"] ;
172 -> 176 ;
177 [label="gini = 0.0\nsamples = 16\nvalue = [0, 16]\nclass = bad"] ;
176 -> 177 ;
178 [label="gini = 0.32\nsamples = 5\nvalue = [1, 4]\nclass = bad"] ;
176 -> 178 ;
179 [label="gini = 0.0\nsamples = 1\nvalue = [1, 0]\nclass = good"] ;
171 -> 179 ;
180 [label="V4 <= 11996.0\ngini = 0.057\nsamples = 1858\nvalue = [1803, 55]\nclass = good"] ;
146 -> 180 ;
181 [label="V5 <= 752.0\ngini = 0.054\nsamples = 1853\nvalue = [1802, 51]\nclass = good"] ;
180 -> 181 ;
182 [label="gini = 0.0\nsamples = 3\nvalue = [0, 3]\nclass = bad"] ;
181 -> 182 ;
183 [label="V9 <= 99806848.0\ngini = 0.051\nsamples = 1850\nvalue = [1802, 48]\nclass = good"] ;
181 -> 183 ;
184 [label="V3 <= 121.5\ngini = 0.05\nsamples = 1849\nvalue = [1802, 47]\nclass = good"] ;
183 -> 184 ;
185 [label="V9 <= 10571.0\ngini = 0.017\nsamples = 1080\nvalue = [1071, 9]\nclass = good"] ;
184 -> 185 ;
186 [label="gini = 0.444\nsamples = 3\nvalue = [2, 1]\nclass = good"] ;
185 -> 186 ;
187 [label="gini = 0.015\nsamples = 1077\nvalue = [1069, 8]\nclass = good"] ;
185 -> 187 ;
188 [label="V6 <= 847.5\ngini = 0.094\nsamples = 769\nvalue = [731, 38]\nclass = good"] ;
184 -> 188 ;
189 [label="gini = 0.012\nsamples = 330\nvalue = [328, 2]\nclass = good"] ;
188 -> 189 ;
190 [label="gini = 0.151\nsamples = 439\nvalue = [403, 36]\nclass = good"] ;
188 -> 190 ;
191 [label="gini = 0.0\nsamples = 1\nvalue = [0, 1]\nclass = bad"] ;
183 -> 191 ;
192 [label="V9 <= 21852425.5\ngini = 0.32\nsamples = 5\nvalue = [1, 4]\nclass = bad"] ;
180 -> 192 ;
193 [label="gini = 0.0\nsamples = 4\nvalue = [0, 4]\nclass = bad"] ;
192 -> 193 ;
194 [label="gini = 0.0\nsamples = 1\nvalue = [1, 0]\nclass = good"] ;
192 -> 194 ;
195 [label="gini = 0.0\nsamples = 33\nvalue = [0, 33]\nclass = bad"] ;
145 -> 195 ;
196 [label="gini = 0.0\nsamples = 59\nvalue = [0, 59]\nclass = bad"] ;
144 -> 196 ;
}
